%YAML:1.0
my_svm: !!opencv-ml-svm
   svm_type: C_SVC
   kernel: { type:LINEAR }
   C: 1.
   term_criteria: { epsilon:1.1920928955078125e-07, iterations:1000 }
   var_all: 3528
   var_count: 3528
   class_count: 2
   class_labels: !!opencv-matrix
      rows: 1
      cols: 2
      dt: i
      data: [ -1, 1 ]
   sv_total: 1
   support_vectors:
      - [ 0., 0., 0., 0., 0., 0., 0., 0., 0., 0., 0., 0., 0., 0., 0., 0.,
          0., 0., 0., 0., 0., 0., 0., 0., 0., 0., 0., 0., 0., 0., 0., 0.,
          0., 0., 0., 0., 0., 0., 0., 0., 0., 0., 0., 0., 0., 0., 0., 0.,
          0., 0., 0., 0., 0., 0., 0., 0., 0., 0., 0., 0., 0., 0., 0., 0.,
          -2.03185119e-02, -6.08007424e-02, 0., -8.52389038e-02, 0., 0.,
          0., 0., -1.29670613e-02, -3.50195146e-03, -1.04791606e-02, 0.,
          -4.48448770e-02, 0., 0., 0., -1.29670613e-02, -1.09728113e-01,
          -2.70130243e-02, -8.08330774e-02, 0., -1.10809736e-01, 0.,
          -5.44250617e-03, -1.81879010e-03, -1.09728113e-01,
          -2.73676943e-02, -8.72856285e-03, -2.61191744e-02, 0.,
          -5.67676090e-02, 0., -1.94592774e-03, -6.50294765e-04,
          -2.73676943e-02, 7.77669400e-02, -4.42209989e-02,
          -7.73728043e-02, 0., -8.73134509e-02, 0., -2.31991019e-02,
          -7.75274495e-03, 7.77669400e-02, -9.40350965e-02,
          -1.29482206e-02, -3.87459062e-02, 0., -8.10971484e-02, 0.,
          -1.38561316e-02, -4.63047670e-03, -9.40350965e-02,
          -4.01830077e-01, -7.71748787e-03, -2.30936576e-02, 0.,
          -1.58915848e-01, 0., -3.92607152e-02, -4.78122458e-02,
          -4.01830077e-01, 2.06267601e-03, -9.00249369e-03,
          -2.52410267e-02, 0., -3.45809422e-02, 0., -1.39156478e-02,
          -4.65037394e-03, 2.06267601e-03, -9.75438133e-02,
          1.32878035e-01, 5.82022369e-02, 0., 2.55068809e-01, 0.,
          -2.41542272e-02, 3.68258217e-03, -9.75438133e-02,
          -2.42517322e-01, -1.60747673e-02, -4.81017679e-02, 0.,
          -2.06012741e-01, 0., -3.81188542e-02, -1.38947349e-02,
          -2.42517322e-01, 2.04237208e-01, -1.92391220e-02,
          -7.04411045e-02, 0., 1.05985269e-01, 0., -2.01893419e-01,
          -6.59677759e-02, 2.04237208e-01, -2.07409021e-02,
          6.43933192e-02, 1.49427339e-01, 0., -2.66983137e-02, 0.,
          3.52045633e-02, 4.90966477e-02, -2.07409021e-02,
          -2.57941812e-01, 9.62383486e-03, -3.23428154e-01, 0.,
          -4.39048707e-02, 0., -1.45435795e-01, -1.03693999e-01,
          -2.57941812e-01, 2.69591343e-03, -9.19897389e-03,
          -5.24195023e-02, 0., -2.65218288e-01, 0., -1.40719563e-01,
          -5.26818261e-02, 2.69591343e-03, -6.28430769e-02,
          1.08534709e-01, 7.69427344e-02, 0., 7.34993890e-02, 0.,
          2.61945188e-01, 7.41604120e-02, -6.28430769e-02,
          -1.74417850e-02, -1.49375796e-02, -1.74046025e-01, 0.,
          2.63070494e-01, 0., 1.11011833e-01, -3.98657285e-04,
          -1.74417850e-02, -3.86399567e-01, -2.32130736e-02,
          3.97990830e-02, 0., 2.30589822e-01, 0., 3.36085558e-01,
          1.09506659e-01, -3.86399567e-01, -2.60156840e-01,
          1.45866230e-01, 2.09542930e-01, 0., -1.91984355e-01, 0.,
          3.43346689e-03, -1.66699830e-02, -2.60156840e-01,
          7.44278058e-02, 6.21638447e-02, 2.23862007e-01, 0.,
          -3.13032530e-02, 0., 2.35680461e-01, 8.28694999e-02,
          7.44278058e-02, 2.94359416e-01, 1.37054667e-01,
          -8.21100622e-02, 0., 1.61087117e-03, 0., 1.51185319e-01,
          8.14751983e-02, 2.94359416e-01, 2.18458980e-01, 1.96507070e-02,
          1.89004555e-01, 0., -2.08674476e-01, 0., -1.89270064e-01,
          -3.40668783e-02, 2.18458980e-01, 0., 0., 0., 0., 0., 0., 0.,
          0., 0., 0., 0., 0., 0., 0., 0., 0., 0., 0., 0., 0., 0., 0., 0.,
          0., 0., 0., 0., 0., 0., 0., 0., 0., 0., 0., 0., 0., 0., 0., 0.,
          0., 0., 0., 0., 0., 0., -9.34112258e-03, -1.45832282e-02,
          -4.36385833e-02, 0., -9.04131979e-02, 0., -4.87560639e-04,
          -1.62934200e-04, -9.34112258e-03, 0., 0., 0., 0., 0., 0., 0.,
          0., 0., -4.90909852e-02, -8.85974616e-03, -2.65117381e-02, 0.,
          -1.52777329e-01, 0., -2.36319024e-02, -9.97571182e-03,
          -4.90909852e-02, -1.64108742e-02, -7.29720062e-03,
          -2.18359903e-02, 0., -4.86802272e-02, 0., -6.16143644e-03,
          -2.05904688e-03, -1.64108742e-02, -1.03723370e-01,
          -3.37624084e-03, 1.71040259e-02, 0., -8.29773024e-03, 0.,
          -2.49758214e-02, -8.34649242e-03, -1.03723370e-01,
          -3.83163989e-02, -6.88063167e-03, -2.05894485e-02, 0.,
          -7.04773813e-02, 0., -3.16503979e-02, -1.05770221e-02,
          -3.83163989e-02, -1.84907392e-02, 8.41675252e-02,
          -1.32746791e-04, 0., 3.92763317e-02, 0., -1.46018088e-01,
          -5.86002059e-02, -1.84907392e-02, -4.53271605e-02,
          -4.05507209e-03, 2.21078657e-02, 0., -3.86252478e-02, 0.,
          -2.01408658e-02, -6.73073390e-03, -4.53271605e-02,
          -6.61063269e-02, 3.28436643e-02, 9.32126027e-03, 0.,
          4.44325894e-01, 0., -8.45017359e-02, 1.24478992e-02,
          -6.61063269e-02, 4.23078164e-02, 4.04258668e-02,
          2.41091102e-02, 0., 1.89586282e-01, 0., -5.46548925e-02,
          -2.20060479e-02, 4.23078164e-02, -9.83687304e-03,
          2.13022366e-01, 4.12275016e-01, 0., -9.18520615e-03, 0.,
          -5.06802946e-02, 7.47000426e-03, -9.83687304e-03,
          9.87667311e-03, 6.14768304e-02, 1.10268958e-01, 0.,
          2.05987245e-02, 0., -5.64159341e-02, -1.07204644e-02,
          9.87667311e-03, 2.54784971e-01, 4.03773189e-02,
          -2.54030943e-01, 0., 1.34107172e-01, 0., -4.87104915e-02,
          -3.74728851e-02, 2.54784971e-01, 5.92053682e-02,
          6.43676221e-02, 2.66738594e-01, 0., -1.30472705e-01, 0.,
          2.62191854e-02, 9.30600688e-02, 5.92053682e-02,
          -1.88047767e-01, -2.48132586e-01, -3.75724763e-01, 0.,
          1.62730142e-01, 0., -1.01487987e-01, 1.68337807e-01,
          -1.88047767e-01, -2.70876110e-01, 6.83189407e-02,
          -7.22704679e-02, 0., -1.48458749e-01, 0., -4.91181612e-02,
          -4.54267077e-02, -2.70876110e-01, -1.34718055e-02,
          -5.05267456e-02, -1.38725492e-03, 0., 4.06666994e-01, 0.,
          2.57156074e-01, 8.10257643e-02, -1.34718055e-02,
          2.49864727e-01, -5.66993952e-02, 3.63286585e-02, 0.,
          6.01838604e-02, 0., 2.07034796e-01, 3.58094066e-01,
          2.49864727e-01, -3.39079201e-01, -1.44223770e-04,
          1.83870286e-01, 0., -1.42749369e-01, 0., 1.07491426e-01,
          -2.08301991e-02, -3.39079201e-01, -3.95513207e-01,
          9.56576914e-02, 3.39278840e-02, 0., -1.19514853e-01, 0.,
          -1.59859320e-03, -6.47599697e-02, -3.95513207e-01,
          -1.27363041e-01, 2.53292382e-01, 3.05718660e-01, 0.,
          3.49799335e-01, 0., -2.95614272e-01, -1.71432644e-02,
          -1.27363041e-01, 8.24642479e-02, 7.15116039e-02,
          1.32841781e-01, 0., 6.13286436e-01, 0., 7.11946368e-01,
          2.65898675e-01, 8.24642479e-02, -2.22111754e-02,
          6.32114559e-02, 4.95656505e-02, 0., 4.04325537e-02, 0.,
          2.17078440e-02, -9.99556333e-02, -2.22111754e-02, 0., 0., 0.,
          0., 0., 0., 0., 0., 0., 0., 0., 0., 0., 0., 0., 0., 0., 0., 0.,
          0., 0., 0., 0., 0., 0., 0., 0., 0., 0., 0., 0., 0., 0., 0., 0.,
          0., 0., 0., 0., 0., 0., 0., 0., 0., 0., -6.85342252e-02, 0.,
          0., 0., -1.74685910e-01, 0., -2.02669017e-02, -8.35935958e-03,
          -6.85342252e-02, 0., 0., 0., 0., 0., 0., 0., 0., 0.,
          -1.27993133e-02, 0., 0., 0., -2.02669017e-02, 0.,
          -3.75329214e-03, -1.25428487e-03, -1.27993133e-02,
          -6.92495108e-02, -3.36579443e-03, -1.00717098e-02, 0.,
          -9.17629004e-02, 0., -3.01901139e-02, -1.00890156e-02,
          -6.92495108e-02, -1.14335261e-01, 7.81915039e-02,
          4.20706123e-02, 0., -3.24367061e-02, 0., -1.30716354e-01,
          -5.19200899e-02, -1.14335261e-01, -1.24476440e-02,
          -1.86776533e-03, -5.58906468e-03, 0., -1.65448189e-01, 0.,
          -3.29790241e-03, -1.10210211e-03, -1.24476440e-02,
          1.24569520e-01, -8.65284130e-02, -9.44005027e-02, 0.,
          -1.05903774e-01, 0., -4.85849231e-02, -1.62362531e-02,
          1.24569520e-01, 7.98003748e-03, -1.93035696e-02,
          1.57377571e-02, 0., 2.01272458e-01, 0., -8.39920565e-02,
          -3.03205978e-02, 7.98003748e-03, -4.49928157e-02,
          5.11426143e-02, 2.31298447e-01, 0., -1.62505135e-01, 0.,
          9.85005572e-02, 5.85489534e-02, -4.49928157e-02,
          1.16262160e-01, -5.95217198e-02, -8.89870971e-02, 0.,
          1.88098148e-01, 0., -8.15576464e-02, -2.97877062e-02,
          1.16262160e-01, -3.32828492e-01, -1.80986211e-01,
          3.76493111e-02, 0., 1.01951294e-01, 0., -1.64176077e-01,
          -9.81870517e-02, -3.32828492e-01, -1.48564661e-02,
          1.38365505e-02, 1.25296474e-01, 0., -4.30895798e-02, 0.,
          -1.37095731e-02, -1.91198643e-02, -1.48564661e-02,
          -1.96027189e-01, -6.48360252e-02, -1.48578435e-01, 0.,
          -1.90222666e-01, 0., -4.31040496e-01, -2.68362984e-02,
          -1.96027189e-01, 1.94705334e-02, -7.78373554e-02,
          1.93905123e-02, 0., -2.40048114e-02, 0., -2.38368750e-01,
          -1.05473556e-01, 1.94705334e-02, -4.43394631e-02,
          -1.64135918e-01, -4.63473618e-01, 0., -4.10010010e-01, 0.,
          -1.08574279e-01, -3.24622504e-02, -4.43394631e-02,
          -2.17343178e-02, 4.68686298e-02, 1.21929549e-01, 0.,
          -1.52655482e-01, 0., -2.28165001e-01, -9.00796130e-02,
          -2.17343178e-02, -1.17027573e-01, 1.74832325e-02,
          3.16458285e-01, 0., -8.29646587e-02, 0., -1.48552865e-01,
          -2.37860195e-02, -1.17027573e-01, 3.36166531e-01,
          -3.52628976e-02, -2.00685173e-01, 0., -2.24090591e-01, 0.,
          4.37142439e-02, 1.76093038e-02, 3.36166531e-01,
          -2.83007801e-01, 1.78109578e-04, 3.52816254e-01, 0.,
          -3.13284807e-02, 0., 9.19136256e-02, 6.01916648e-02,
          -2.83007801e-01, -4.54675972e-01, -7.54861757e-02,
          -2.52372678e-02, 0., 3.89558822e-01, 0., 1.53850717e-02,
          9.06675681e-03, -4.54675972e-01, 4.12013009e-02,
          -1.85076073e-01, -1.18247487e-01, 0., 9.73264277e-02, 0.,
          -1.96429670e-01, -1.04186535e-01, 4.12013009e-02,
          2.76301533e-01, 3.34531143e-02, 1.16202191e-01, 0.,
          2.93591231e-01, 0., 9.46325660e-02, 2.87294298e-01,
          2.76301533e-01, 3.13393399e-02, -9.13754255e-02,
          1.40302852e-01, 0., 6.95163906e-02, 0., -2.21275985e-01,
          -5.59518576e-01, 3.13393399e-02, 0., 0., 0., 0., 0., 0., 0.,
          0., 0., 0., 0., 0., 0., 0., 0., 0., 0., 0., 0., 0., 0., 0., 0.,
          0., 0., 0., 0., 0., 0., 0., 0., 0., 0., 0., 0., 0.,
          6.22275402e-04, 0., 0., 0., 1.24455080e-03, 0., 0., 0.,
          6.22275402e-04, -2.99118683e-02, 0., 0., 0., -4.89274673e-02,
          0., 0., 0., -2.99118683e-02, 6.89699175e-03, 0., 0., 0.,
          1.49397971e-02, 0., 0., 0., 6.89699175e-03, -7.69060403e-02,
          0., 0., 0., -7.69060403e-02, 0., 0., 0., -7.69060403e-02,
          -4.07790765e-02, -3.93988239e-03, -1.17896227e-02, 0.,
          -1.22365363e-01, 0., 0., 0., -4.07790765e-02, -6.92732632e-02,
          -8.56427699e-02, -1.31715313e-01, 0., 3.41482788e-01, 0.,
          5.48502384e-03, 1.83298404e-03, -6.92732632e-02,
          2.82662716e-02, -9.59862676e-03, -2.87227258e-02, 0.,
          6.87061846e-02, 0., 0., 0., 2.82662716e-02, 7.13385046e-02,
          -3.58289294e-02, -5.26405349e-02, 0., -1.45337448e-01, 0.,
          -4.99267317e-02, -4.29010503e-02, 7.13385046e-02,
          -8.46089646e-02, -6.95096627e-02, -8.30576718e-02, 0.,
          -9.32156816e-02, 0., -9.66134146e-02, -3.22865359e-02,
          -8.46089646e-02, -6.62958473e-02, -1.89633705e-02,
          2.52372213e-02, 0., 1.06123395e-01, 0., -1.81859747e-01,
          -7.16883168e-02, -6.62958473e-02, 1.95450597e-02,
          -3.01884338e-02, -6.36425018e-02, 0., -3.53970826e-01, 0.,
          -4.55732495e-02, -2.98716053e-02, 1.95450597e-02,
          1.64749950e-01, 4.26293612e-02, -1.21075623e-01, 0.,
          7.37242341e-01, 0., 3.49733293e-01, 2.54412234e-01,
          1.64749950e-01, 1.27061643e-03, -2.34087426e-02,
          5.57534248e-02, 0., -9.41559598e-02, 0., -1.84363842e-01,
          -9.28821340e-02, 1.27061643e-03, 2.75021762e-01,
          -7.88049102e-02, 1.90425470e-01, 0., 2.25438967e-01, 0.,
          3.16713512e-01, 4.07345034e-02, 2.75021762e-01,
          -8.41346532e-02, 9.99190509e-02, 1.02824405e-01, 0.,
          -3.42106998e-01, 0., 1.03833660e-01, 2.91155949e-02,
          -8.41346532e-02, 5.16559742e-02, -2.08684340e-01,
          -4.59113985e-01, 0., 3.91935930e-02, 0., 5.51265925e-02,
          7.24244118e-02, 5.16559742e-02, -5.03105409e-02,
          -6.93778396e-02, 8.41256231e-02, 0., 5.77725843e-02, 0.,
          -7.78605640e-02, -1.38249233e-01, -5.03105409e-02,
          1.63464710e-01, -1.98742867e-01, -5.05360328e-02, 0.,
          -8.02498907e-02, 0., 1.23719417e-01, 2.83647299e-01,
          1.63464710e-01, 3.04589123e-01, -7.19086081e-02,
          -9.26372036e-02, 0., 1.64367080e-01, 0., 6.82795346e-01,
          3.78226578e-01, 3.04589123e-01, 2.16087788e-01,
          -3.23402941e-01, -4.02174622e-01, 0., -8.75588953e-02, 0.,
          -1.95456013e-01, -1.16051205e-01, 2.16087788e-01,
          -2.56223321e-01, -1.67781010e-01, -2.64408410e-01, 0.,
          -8.37996323e-03, 0., 7.08087087e-02, 1.06247984e-01,
          -2.56223321e-01, 6.11988157e-02, -1.89339593e-01,
          2.06067771e-01, 0., 9.16224420e-02, 0., 4.29096103e-01,
          6.73468187e-02, 6.11988157e-02, 1.23877250e-01, 6.73938170e-03,
          -5.32968901e-02, 0., 3.87750834e-01, 0., 6.25931978e-01,
          3.53031248e-01, 1.23877250e-01, 7.44173750e-02,
          -1.07671559e-01, 2.82116026e-01, 0., 1.90422535e-01, 0.,
          -2.16423154e-01, -7.30108470e-02, 7.44173750e-02, 0., 0., 0.,
          0., 0., 0., 0., 0., 0., 0., 0., 0., 0., 0., 0., 0., 0., 0., 0.,
          0., 0., 0., 0., 0., 0., 0., 0., 0., 0., 0., 0., 0., 0., 0., 0.,
          0., 3.92767694e-03, 1.00277853e-03, 3.00069363e-03, 0.,
          7.07911793e-03, 0., 0., 0., 3.92767694e-03, -2.89091114e-02,
          -9.31713171e-03, -2.78804004e-02, 0., -5.10547347e-02, 0., 0.,
          0., -2.89091114e-02, 1.79463997e-02, 3.17630544e-03,
          9.50470939e-03, 0., 4.97558899e-02, 0., 2.50280392e-03,
          8.36393097e-04, 1.79463997e-02, 9.38365310e-02,
          -2.67716888e-02, 2.02661008e-02, 0., 7.56467357e-02, 0.,
          2.61986703e-02, 8.75514466e-03, 9.38365310e-02, 9.40643847e-02,
          -1.16138794e-02, -3.47531140e-02, 0., 1.22930899e-01, 0.,
          1.14819466e-03, 3.83706501e-04, 9.40643847e-02,
          -7.02585839e-03, -3.60204168e-02, -5.34273684e-02, 0.,
          -1.51002526e-01, 0., -3.47907059e-02, -1.16264485e-02,
          -7.02585839e-03, 5.87394601e-03, -2.86475159e-02,
          -2.90085357e-02, 0., -3.09058316e-02, 0., 1.63720883e-02,
          5.47126960e-03, 5.87394601e-03, 2.78188158e-02,
          -4.51418683e-02, -5.69614954e-02, 0., -5.25290817e-02, 0.,
          -1.91125914e-01, -7.92465359e-02, 2.78188158e-02,
          5.48757203e-02, -3.37831378e-02, -3.41571867e-02, 0.,
          -1.69555336e-01, 0., -4.52337638e-02, -2.26529948e-02,
          5.48757203e-02, 1.51711389e-01, 8.86744261e-02,
          -1.87100507e-02, 0., -1.00721605e-01, 0., -2.48829588e-01,
          -5.47525194e-03, 1.51711389e-01, 1.54196814e-01,
          -2.27643214e-02, 3.24977785e-02, 0., 6.22618236e-02, 0.,
          -7.84831643e-02, -1.78927667e-02, 1.54196814e-01,
          2.05663502e-01, 1.14602245e-01, 5.41212000e-02, 0.,
          3.78509052e-02, 0., -2.20884532e-01, 2.52584536e-02,
          2.05663502e-01, -5.95954843e-02, 7.54043683e-02,
          4.28489670e-02, 0., -1.98206469e-01, 0., -1.21654764e-01,
          3.19784012e-04, -5.95954843e-02, 2.33819231e-01,
          -8.50127488e-02, -4.97620404e-02, 0., -1.87128469e-01, 0.,
          -3.31152827e-01, -1.31347049e-02, 2.33819231e-01,
          -3.25702541e-02, -2.15233862e-02, -1.29064664e-01, 0.,
          -1.46832168e-01, 0., 1.80776954e-01, 8.11111182e-02,
          -3.25702541e-02, 1.04828425e-01, 2.55222410e-01,
          -2.15214044e-01, 0., 1.27822608e-01, 0., -4.96966317e-02,
          5.76535501e-02, 1.04828425e-01, -1.75590947e-01,
          -1.22086033e-01, -1.02246106e-01, 0., -2.34890386e-01, 0.,
          7.27706477e-02, 3.81259359e-02, -1.75590947e-01,
          -1.53421178e-01, 4.79725264e-02, 3.52986813e-01, 0.,
          5.46002313e-02, 0., 1.83141306e-02, -9.61015746e-02,
          -1.53421178e-01, 4.96042445e-02, 8.08368027e-02,
          1.79954350e-01, 0., -3.32286477e-01, 0., 2.67019123e-01,
          2.20354483e-01, 4.96042445e-02, -6.20397031e-02,
          -1.31153271e-01, -1.28747165e-01, 0., 7.57149979e-02, 0.,
          -6.89008981e-02, -6.20027818e-02, -6.20397031e-02,
          -6.34442791e-02, 8.32379237e-02, 2.17252329e-01, 0.,
          -2.06713527e-01, 0., -5.48344851e-03, -4.62368242e-02,
          -6.34442791e-02, -3.35549898e-02, 6.13243692e-02,
          1.16286239e-04, 0., -4.52734418e-02, 0., 1.27555668e-01,
          -8.88269097e-02, -3.35549898e-02, -8.10084343e-02,
          1.17482655e-01, 4.25503790e-01, 0., 4.20498997e-01, 0.,
          5.84077500e-02, -7.05151930e-02, -8.10084343e-02,
          -7.93120563e-02, 4.79319058e-02, -6.81559294e-02, 0.,
          1.37658313e-01, 0., 1.75866783e-01, -1.83585510e-01,
          -7.93120563e-02, 0., 0., 0., 0., 0., 0., 0., 0., 0., 0., 0.,
          0., 0., 0., 0., 0., 0., 0., 0., 0., 0., 0., 0., 0., 0., 0., 0.,
          0., 0., 0., 0., 0., 0., 0., 0., 0., 1.35665014e-02,
          1.25858793e-03, 3.76617070e-03, 0., 3.92163657e-02, 0.,
          1.28967874e-03, 4.30987973e-04, 1.35665014e-02, 5.88104427e-02,
          -4.32731807e-02, -1.94756370e-02, 0., -4.77705598e-02, 0.,
          3.74542810e-02, 1.25165787e-02, 5.88104427e-02, 2.73293313e-02,
          1.12316851e-03, 3.36094690e-03, 0., 9.39160138e-02, 0.,
          7.20808143e-03, 2.40881648e-03, 2.73293313e-02, 2.78300606e-02,
          -4.98006633e-03, -2.02467889e-02, 0., -1.96218118e-01, 0.,
          -7.60037601e-02, -7.41300881e-02, 2.78300606e-02,
          -5.38091501e-03, -2.19696686e-02, -3.27893943e-02, 0.,
          -4.56241071e-02, 0., 2.22745277e-02, 7.44376704e-03,
          -5.38091501e-03, -2.68229041e-02, -4.67194989e-02,
          -3.95382568e-02, 0., 1.41413301e-01, 0., -9.48562175e-02,
          -3.54750939e-02, -2.68229041e-02, 6.90386770e-03,
          -1.86761674e-02, -6.78845793e-02, 0., -1.51474103e-01, 0.,
          -6.58635721e-02, -2.43367273e-02, 6.90386770e-03,
          -1.09107211e-01, -4.60656099e-02, 1.22824535e-01, 0.,
          -1.50436565e-01, 0., 1.31737947e-01, 3.12857553e-02,
          -1.09107211e-01, 6.48487881e-02, 1.59524847e-02,
          8.15233365e-02, 0., 4.14640792e-02, 0., -7.70302191e-02,
          -2.17426028e-02, 6.48487881e-02, 1.40247628e-01,
          9.53523163e-03, -1.10694759e-01, 0., 2.65064359e-01, 0.,
          -2.21364692e-01, -3.39651518e-02, 1.40247628e-01,
          1.49346381e-01, -5.93285486e-02, 2.36374717e-02, 0.,
          3.10081244e-02, 0., 1.82612091e-02, -2.55931020e-02,
          1.49346381e-01, 7.82026872e-02, 4.42905985e-02,
          -9.26601514e-02, 0., -1.59103766e-01, 0., -1.88568365e-02,
          -4.94570136e-02, 7.82026872e-02, -2.50229925e-01,
          -5.17708138e-02, -1.46652400e-01, 0., -2.15672076e-01, 0.,
          1.46267012e-01, 5.65862693e-02, -2.50229925e-01,
          -4.56987657e-02, 1.80275097e-01, 8.71151835e-02, 0.,
          -1.49183989e-01, 0., 1.76736657e-02, -1.15034789e-01,
          -4.56987657e-02, -1.67368010e-01, -8.89881980e-04,
          1.72157381e-02, 0., -4.24062833e-02, 0., 1.92108572e-01,
          -2.25969888e-02, -1.67368010e-01, -2.03486443e-01,
          5.33936173e-02, -2.34157130e-01, 0., -1.99831948e-01, 0.,
          4.41110760e-01, 9.81501713e-02, -2.03486443e-01,
          2.67676748e-02, 7.05052763e-02, 1.46063372e-01, 0.,
          -2.31540948e-01, 0., -2.53701270e-01, -2.91693926e-01,
          2.67676748e-02, 4.45239581e-02, -3.09752077e-01,
          4.47993316e-02, 0., -7.68790860e-03, 0., 1.01806849e-01,
          4.53688800e-02, 4.45239581e-02, 1.23750433e-01,
          -1.10593252e-01, -7.98652843e-02, 0., -3.85593325e-02, 0.,
          -1.03686839e-01, -4.51514609e-02, 1.23750433e-01,
          6.25774860e-02, -1.35999635e-01, -9.68392268e-02, 0.,
          4.11264338e-02, 0., 7.33485296e-02, -2.00014830e-01,
          6.25774860e-02, -2.41313010e-01, -1.86877310e-01,
          9.16216150e-02, 0., -4.76176012e-03, 0., 6.49093986e-02,
          -2.16113746e-01, -2.41313010e-01, 4.14351970e-02,
          -1.75518140e-01, -2.43838765e-02, 0., 1.01864874e-01, 0.,
          -1.16183802e-01, 1.07091546e-01, 4.14351970e-02,
          -3.09813350e-01, -3.56749594e-02, 1.99202932e-02, 0.,
          5.13539612e-02, 0., 2.75480701e-03, -1.30022705e-01,
          -3.09813350e-01, -1.02183737e-01, -7.18294010e-02,
          -1.47672489e-01, 0., 5.13198525e-02, 0., -2.70044012e-03,
          3.18910092e-01, -1.02183737e-01, 0., 0., 0., 0., 0., 0., 0.,
          0., 0., 0., 0., 0., 0., 0., 0., 0., 0., 0., 0., 0., 0., 0., 0.,
          0., 0., 0., 0., 0., 0., 0., 0., 0., 0., 0., 0., 0.,
          2.66016610e-02, 2.07786565e-03, 6.21776702e-03, 0.,
          8.82445276e-02, 0., 1.51008284e-02, 5.04643610e-03,
          2.66016610e-02, 3.22253108e-02, 1.74106210e-02, 5.13459034e-02,
          0., -2.60056913e-01, 0., -3.00975945e-02, -4.89021018e-02,
          3.22253108e-02, 1.45389810e-02, 8.25646624e-04, 2.47065001e-03,
          0., 3.08780037e-02, 0., 1.15462197e-02, 3.85854603e-03,
          1.45389810e-02, -1.32601168e-02, 5.61920879e-03,
          1.68148037e-02, 0., -1.92369949e-02, 0., -4.29175496e-02,
          -5.67117557e-02, -1.32601168e-02, 4.32401523e-02,
          1.74535415e-03, 5.22275874e-03, 0., -3.92743424e-02, 0.,
          -3.36272530e-02, -1.58091877e-02, 4.32401523e-02,
          -1.89767659e-01, -4.02013361e-02, -8.21534842e-02, 0.,
          2.98000455e-01, 0., 1.59787074e-01, 5.30907325e-03,
          -1.89767659e-01, 1.95688568e-03, 2.39398703e-03,
          7.16371043e-03, 0., -1.49945216e-02, 0., -4.26163711e-02,
          -2.77105644e-02, 1.95688568e-03, -5.34467734e-02,
          -8.95590894e-03, 5.77709451e-03, 0., 3.81615423e-02, 0.,
          -5.67924641e-02, -3.73909622e-02, -5.34467734e-02,
          1.73741609e-01, 1.36714790e-03, 2.42693797e-02, 0.,
          4.71048765e-02, 0., 8.95399451e-02, -7.38055678e-04,
          1.73741609e-01, -1.03631727e-01, 7.17859939e-02,
          -3.63371857e-02, 0., 1.65632263e-01, 0., 4.49684856e-04,
          -1.34048110e-03, -1.03631727e-01, 1.92895439e-02,
          -2.37549897e-02, -8.50906670e-02, 0., -1.17956370e-01, 0.,
          -7.66183883e-02, -2.56045461e-02, 1.92895439e-02,
          4.23506871e-02, -4.92320247e-02, -1.08596951e-01, 0.,
          -5.64338081e-02, 0., -1.96603760e-01, -6.77373335e-02,
          4.23506871e-02, -9.13532376e-02, 1.46164805e-01,
          2.27676451e-01, 0., -1.60924420e-01, 0., 2.55341738e-01,
          6.52604401e-02, -9.13532376e-02, 5.73622249e-02,
          5.31688072e-02, 1.03571020e-01, 0., -2.30328254e-02, 0.,
          9.38961841e-03, 1.49740219e-01, 5.73622249e-02,
          -1.11963302e-01, -1.91364978e-02, 9.36164930e-02, 0.,
          -1.83785692e-01, 0., -3.43922749e-02, -1.14933131e-02,
          -1.11963302e-01, 2.31504943e-02, -1.26739413e-01,
          -1.50155067e-01, 0., -9.72599955e-04, 0., 1.75771818e-01,
          2.59338766e-01, 2.31504943e-02, 1.68895379e-01, 1.19855180e-01,
          -3.07824872e-02, 0., -1.53412178e-01, 0., -1.48711428e-01,
          -1.34176388e-01, 1.68895379e-01, -4.43997346e-02,
          -5.65198287e-02, 2.61371553e-01, 0., 1.99475557e-01, 0.,
          -5.39464653e-02, -5.59046715e-02, -4.43997346e-02,
          -2.59346634e-01, -7.22124055e-02, 1.23630397e-01, 0.,
          -3.34833443e-01, 0., -6.28086627e-02, 1.54048190e-01,
          -2.59346634e-01, -8.77382532e-02, 4.08333726e-02,
          8.77801701e-02, 0., -2.02634521e-02, 0., -2.26588741e-01,
          1.18922368e-01, -8.77382532e-02, -2.17902675e-01,
          1.78371847e-01, 1.93682626e-01, 0., 4.44763415e-02, 0.,
          -1.51481852e-01, -6.04423992e-02, -2.17902675e-01,
          -1.23465419e-01, 2.73608148e-01, 5.63650914e-02, 0.,
          -7.60206655e-02, 0., -9.49625373e-02, 1.55908972e-01,
          -1.23465419e-01, -1.04091443e-01, -3.29326481e-01,
          -3.02798182e-01, 0., 7.04703927e-02, 0., -7.24590719e-02,
          1.74632192e-01, -1.04091443e-01, 2.34126411e-02,
          1.42519817e-01, 4.48044762e-02, 0., -8.56625568e-03, 0.,
          -4.62746955e-02, 1.13549374e-01, 2.34126411e-02, 0., 0., 0.,
          0., 0., 0., 0., 0., 0., 0., 0., 0., 0., 0., 0., 0., 0., 0., 0.,
          0., 0., 0., 0., 0., 0., 0., 0., 0., 0., 0., 0., 0., 0., 0., 0.,
          0., 3.92767694e-03, 1.00277853e-03, 3.00069363e-03, 0.,
          7.07911793e-03, 0., 0., 0., 3.92767694e-03, -2.89091114e-02,
          -9.31713171e-03, -2.78804004e-02, 0., -5.10547347e-02, 0., 0.,
          0., -2.89091114e-02, 1.79463997e-02, 3.17630544e-03,
          9.50470939e-03, 0., 4.97558899e-02, 0., 2.50280392e-03,
          8.36393097e-04, 1.79463997e-02, 9.38365310e-02,
          -2.67716888e-02, 2.02661008e-02, 0., 7.56467357e-02, 0.,
          2.61986703e-02, 8.75514466e-03, 9.38365310e-02, 9.40643847e-02,
          -1.16138794e-02, -3.47531140e-02, 0., 1.22930899e-01, 0.,
          1.14819466e-03, 3.83706501e-04, 9.40643847e-02,
          -7.02585839e-03, -3.60204168e-02, -5.34273684e-02, 0.,
          -1.51002526e-01, 0., -3.47907059e-02, -1.16264485e-02,
          -7.02585839e-03, 5.87394601e-03, -2.86475159e-02,
          -2.90085357e-02, 0., -3.09058316e-02, 0., 1.63720883e-02,
          5.47126960e-03, 5.87394601e-03, 2.78188158e-02,
          -4.51418683e-02, -5.69614954e-02, 0., -5.25290817e-02, 0.,
          -1.91125914e-01, -7.92465359e-02, 2.78188158e-02,
          5.48757203e-02, -3.37831378e-02, -3.41571867e-02, 0.,
          -1.69555336e-01, 0., -4.52337638e-02, -2.26529948e-02,
          5.48757203e-02, 1.51711389e-01, 8.86744261e-02,
          -1.87100507e-02, 0., -1.00721605e-01, 0., -2.48829588e-01,
          -5.47525194e-03, 1.51711389e-01, 1.54196814e-01,
          -2.27643214e-02, 3.24977785e-02, 0., 6.22618236e-02, 0.,
          -7.84831643e-02, -1.78927667e-02, 1.54196814e-01,
          2.05663502e-01, 1.14602245e-01, 5.41212000e-02, 0.,
          3.78509052e-02, 0., -2.20884532e-01, 2.52584536e-02,
          2.05663502e-01, -5.95954843e-02, 7.54043683e-02,
          4.28489670e-02, 0., -1.98206469e-01, 0., -1.21654764e-01,
          3.19784012e-04, -5.95954843e-02, 2.33819231e-01,
          -8.50127488e-02, -4.97620404e-02, 0., -1.87128469e-01, 0.,
          -3.31152827e-01, -1.31347049e-02, 2.33819231e-01,
          -3.25702541e-02, -2.15233862e-02, -1.29064664e-01, 0.,
          -1.46832168e-01, 0., 1.80776954e-01, 8.11111182e-02,
          -3.25702541e-02, 1.04828425e-01, 2.55222410e-01,
          -2.15214044e-01, 0., 1.27822608e-01, 0., -4.96966317e-02,
          5.76535501e-02, 1.04828425e-01, -1.75590947e-01,
          -1.22086033e-01, -1.02246106e-01, 0., -2.34890386e-01, 0.,
          7.27706477e-02, 3.81259359e-02, -1.75590947e-01,
          -1.53421178e-01, 4.79725264e-02, 3.52986813e-01, 0.,
          5.46002313e-02, 0., 1.83141306e-02, -9.61015746e-02,
          -1.53421178e-01, 4.96042445e-02, 8.08368027e-02,
          1.79954350e-01, 0., -3.32286477e-01, 0., 2.67019123e-01,
          2.20354483e-01, 4.96042445e-02, -6.20397031e-02,
          -1.31153271e-01, -1.28747165e-01, 0., 7.57149979e-02, 0.,
          -6.89008981e-02, -6.20027818e-02, -6.20397031e-02,
          -6.34442791e-02, 8.32379237e-02, 2.17252329e-01, 0.,
          -2.06713527e-01, 0., -5.48344851e-03, -4.62368242e-02,
          -6.34442791e-02, -3.35549898e-02, 6.13243692e-02,
          1.16286239e-04, 0., -4.52734418e-02, 0., 1.27555668e-01,
          -8.88269097e-02, -3.35549898e-02, -8.10084343e-02,
          1.17482655e-01, 4.25503790e-01, 0., 4.20498997e-01, 0.,
          5.84077500e-02, -7.05151930e-02, -8.10084343e-02,
          -7.93120563e-02, 4.79319058e-02, -6.81559294e-02, 0.,
          1.37658313e-01, 0., 1.75866783e-01, -1.83585510e-01,
          -7.93120563e-02, 0., 0., 0., 0., 0., 0., 0., 0., 0., 0., 0.,
          0., 0., 0., 0., 0., 0., 0., 0., 0., 0., 0., 0., 0., 0., 0., 0.,
          0., 0., 0., 0., 0., 0., 0., 0., 0., 1.35665014e-02,
          1.25858793e-03, 3.76617070e-03, 0., 3.92163657e-02, 0.,
          1.28967874e-03, 4.30987973e-04, 1.35665014e-02, 5.88104427e-02,
          -4.32731807e-02, -1.94756370e-02, 0., -4.77705598e-02, 0.,
          3.74542810e-02, 1.25165787e-02, 5.88104427e-02, 2.73293313e-02,
          1.12316851e-03, 3.36094690e-03, 0., 9.39160138e-02, 0.,
          7.20808143e-03, 2.40881648e-03, 2.73293313e-02, 2.78300606e-02,
          -4.98006633e-03, -2.02467889e-02, 0., -1.96218118e-01, 0.,
          -7.60037601e-02, -7.41300881e-02, 2.78300606e-02,
          -5.38091501e-03, -2.19696686e-02, -3.27893943e-02, 0.,
          -4.56241071e-02, 0., 2.22745277e-02, 7.44376704e-03,
          -5.38091501e-03, -2.68229041e-02, -4.67194989e-02,
          -3.95382568e-02, 0., 1.41413301e-01, 0., -9.48562175e-02,
          -3.54750939e-02, -2.68229041e-02, 6.90386770e-03,
          -1.86761674e-02, -6.78845793e-02, 0., -1.51474103e-01, 0.,
          -6.58635721e-02, -2.43367273e-02, 6.90386770e-03,
          -1.09107211e-01, -4.60656099e-02, 1.22824535e-01, 0.,
          -1.50436565e-01, 0., 1.31737947e-01, 3.12857553e-02,
          -1.09107211e-01, 6.48487881e-02, 1.59524847e-02,
          8.15233365e-02, 0., 4.14640792e-02, 0., -7.70302191e-02,
          -2.17426028e-02, 6.48487881e-02, 1.40247628e-01,
          9.53523163e-03, -1.10694759e-01, 0., 2.65064359e-01, 0.,
          -2.21364692e-01, -3.39651518e-02, 1.40247628e-01,
          1.49346381e-01, -5.93285486e-02, 2.36374717e-02, 0.,
          3.10081244e-02, 0., 1.82612091e-02, -2.55931020e-02,
          1.49346381e-01, 7.82026872e-02, 4.42905985e-02,
          -9.26601514e-02, 0., -1.59103766e-01, 0., -1.88568365e-02,
          -4.94570136e-02, 7.82026872e-02, -2.50229925e-01,
          -5.17708138e-02, -1.46652400e-01, 0., -2.15672076e-01, 0.,
          1.46267012e-01, 5.65862693e-02, -2.50229925e-01,
          -4.56987657e-02, 1.80275097e-01, 8.71151835e-02, 0.,
          -1.49183989e-01, 0., 1.76736657e-02, -1.15034789e-01,
          -4.56987657e-02, -1.67368010e-01, -8.89881980e-04,
          1.72157381e-02, 0., -4.24062833e-02, 0., 1.92108572e-01,
          -2.25969888e-02, -1.67368010e-01, -2.03486443e-01,
          5.33936173e-02, -2.34157130e-01, 0., -1.99831948e-01, 0.,
          4.41110760e-01, 9.81501713e-02, -2.03486443e-01,
          2.67676748e-02, 7.05052763e-02, 1.46063372e-01, 0.,
          -2.31540948e-01, 0., -2.53701270e-01, -2.91693926e-01,
          2.67676748e-02, 4.45239581e-02, -3.09752077e-01,
          4.47993316e-02, 0., -7.68790860e-03, 0., 1.01806849e-01,
          4.53688800e-02, 4.45239581e-02, 1.23750433e-01,
          -1.10593252e-01, -7.98652843e-02, 0., -3.85593325e-02, 0.,
          -1.03686839e-01, -4.51514609e-02, 1.23750433e-01,
          6.25774860e-02, -1.35999635e-01, -9.68392268e-02, 0.,
          4.11264338e-02, 0., 7.33485296e-02, -2.00014830e-01,
          6.25774860e-02, -2.41313010e-01, -1.86877310e-01,
          9.16216150e-02, 0., -4.76176012e-03, 0., 6.49093986e-02,
          -2.16113746e-01, -2.41313010e-01, 4.14351970e-02,
          -1.75518140e-01, -2.43838765e-02, 0., 1.01864874e-01, 0.,
          -1.16183802e-01, 1.07091546e-01, 4.14351970e-02,
          -3.09813350e-01, -3.56749594e-02, 1.99202932e-02, 0.,
          5.13539612e-02, 0., 2.75480701e-03, -1.30022705e-01,
          -3.09813350e-01, -1.02183737e-01, -7.18294010e-02,
          -1.47672489e-01, 0., 5.13198525e-02, 0., -2.70044012e-03,
          3.18910092e-01, -1.02183737e-01, 0., 0., 0., 0., 0., 0., 0.,
          0., 0., 0., 0., 0., 0., 0., 0., 0., 0., 0., 0., 0., 0., 0., 0.,
          0., 0., 0., 0., 0., 0., 0., 0., 0., 0., 0., 0., 0.,
          2.66016610e-02, 2.07786565e-03, 6.21776702e-03, 0.,
          8.82445276e-02, 0., 1.51008284e-02, 5.04643610e-03,
          2.66016610e-02, 3.22253108e-02, 1.74106210e-02, 5.13459034e-02,
          0., -2.60056913e-01, 0., -3.00975945e-02, -4.89021018e-02,
          3.22253108e-02, 1.45389810e-02, 8.25646624e-04, 2.47065001e-03,
          0., 3.08780037e-02, 0., 1.15462197e-02, 3.85854603e-03,
          1.45389810e-02, -1.32601168e-02, 5.61920879e-03,
          1.68148037e-02, 0., -1.92369949e-02, 0., -4.29175496e-02,
          -5.67117557e-02, -1.32601168e-02, 4.32401523e-02,
          1.74535415e-03, 5.22275874e-03, 0., -3.92743424e-02, 0.,
          -3.36272530e-02, -1.58091877e-02, 4.32401523e-02,
          -1.89767659e-01, -4.02013361e-02, -8.21534842e-02, 0.,
          2.98000455e-01, 0., 1.59787074e-01, 5.30907325e-03,
          -1.89767659e-01, 1.95688568e-03, 2.39398703e-03,
          7.16371043e-03, 0., -1.49945216e-02, 0., -4.26163711e-02,
          -2.77105644e-02, 1.95688568e-03, -5.34467734e-02,
          -8.95590894e-03, 5.77709451e-03, 0., 3.81615423e-02, 0.,
          -5.67924641e-02, -3.73909622e-02, -5.34467734e-02,
          1.73741609e-01, 1.36714790e-03, 2.42693797e-02, 0.,
          4.71048765e-02, 0., 8.95399451e-02, -7.38055678e-04,
          1.73741609e-01, -1.03631727e-01, 7.17859939e-02,
          -3.63371857e-02, 0., 1.65632263e-01, 0., 4.49684856e-04,
          -1.34048110e-03, -1.03631727e-01, 1.92895439e-02,
          -2.37549897e-02, -8.50906670e-02, 0., -1.17956370e-01, 0.,
          -7.66183883e-02, -2.56045461e-02, 1.92895439e-02,
          4.23506871e-02, -4.92320247e-02, -1.08596951e-01, 0.,
          -5.64338081e-02, 0., -1.96603760e-01, -6.77373335e-02,
          4.23506871e-02, -9.13532376e-02, 1.46164805e-01,
          2.27676451e-01, 0., -1.60924420e-01, 0., 2.55341738e-01,
          6.52604401e-02, -9.13532376e-02, 5.73622249e-02,
          5.31688072e-02, 1.03571020e-01, 0., -2.30328254e-02, 0.,
          9.38961841e-03, 1.49740219e-01, 5.73622249e-02,
          -1.11963302e-01, -1.91364978e-02, 9.36164930e-02, 0.,
          -1.83785692e-01, 0., -3.43922749e-02, -1.14933131e-02,
          -1.11963302e-01, 2.31504943e-02, -1.26739413e-01,
          -1.50155067e-01, 0., -9.72599955e-04, 0., 1.75771818e-01,
          2.59338766e-01, 2.31504943e-02, 1.68895379e-01, 1.19855180e-01,
          -3.07824872e-02, 0., -1.53412178e-01, 0., -1.48711428e-01,
          -1.34176388e-01, 1.68895379e-01, -4.43997346e-02,
          -5.65198287e-02, 2.61371553e-01, 0., 1.99475557e-01, 0.,
          -5.39464653e-02, -5.59046715e-02, -4.43997346e-02,
          -2.59346634e-01, -7.22124055e-02, 1.23630397e-01, 0.,
          -3.34833443e-01, 0., -6.28086627e-02, 1.54048190e-01,
          -2.59346634e-01, -8.77382532e-02, 4.08333726e-02,
          8.77801701e-02, 0., -2.02634521e-02, 0., -2.26588741e-01,
          1.18922368e-01, -8.77382532e-02, -2.17902675e-01,
          1.78371847e-01, 1.93682626e-01, 0., 4.44763415e-02, 0.,
          -1.51481852e-01, -6.04423992e-02, -2.17902675e-01,
          -1.23465419e-01, 2.73608148e-01, 5.63650914e-02, 0.,
          -7.60206655e-02, 0., -9.49625373e-02, 1.55908972e-01,
          -1.23465419e-01, -1.04091443e-01, -3.29326481e-01,
          -3.02798182e-01, 0., 7.04703927e-02, 0., -7.24590719e-02,
          1.74632192e-01, -1.04091443e-01, 2.34126411e-02,
          1.42519817e-01, 4.48044762e-02, 0., -8.56625568e-03, 0.,
          -4.62746955e-02, 1.13549374e-01, 2.34126411e-02, 0., 0., 0.,
          0., 0., 0., 0., 0., 0., 0., 0., 0., 0., 0., 0., 0., 0., 0., 0.,
          0., 0., 0., 0., 0., 0., 0., 0., 0., 0., 0., 0., 0., 0., 0., 0.,
          0., 1.71281230e-02, 0., 0., 0., 2.53858268e-02, 0.,
          6.67640334e-03, 2.23113783e-03, 1.71281230e-02, 3.66775841e-02,
          -7.06482097e-04, -2.11406406e-03, 0., 4.75081354e-02, 0.,
          -8.17251951e-02, -4.74264361e-02, 3.66775841e-02,
          6.82545069e-04, 0., 0., 0., -2.38089426e-03, 0., 0., 0.,
          6.82545069e-04, -6.23648949e-02, -3.37306596e-03,
          -1.00934962e-02, 0., -1.02357879e-01, 0., 0., 0.,
          -6.23648949e-02, 3.25032994e-02, -8.60021391e-04,
          -2.57351203e-03, 0., 1.62350982e-02, 0., -8.21156651e-02,
          -4.14255969e-02, 3.25032994e-02, -3.08513999e-01,
          1.29653455e-03, -1.53142517e-03, 0., 4.49498653e-01, 0.,
          -1.01489142e-01, -4.98383157e-02, -3.08513999e-01,
          -3.76731269e-02, -2.09257728e-03, -6.26178645e-03, 0.,
          -6.56176805e-02, 0., -1.39155872e-02, -4.65034973e-03,
          -3.76731269e-02, 7.12098256e-02, -4.54327948e-02,
          -1.19982533e-01, 0., 2.36211315e-01, 0., -3.29809636e-02,
          -1.48548624e-02, 7.12098256e-02, -1.11428322e-02,
          4.07508248e-03, 6.46262662e-03, 0., -1.08394794e-01, 0.,
          -1.61239162e-01, -6.69178888e-02, -1.11428322e-02,
          1.09502124e-02, -4.71665673e-02, -8.45969692e-02, 0.,
          -1.46775262e-03, 0., -1.22472093e-01, -4.09280248e-02,
          1.09502124e-02, -6.83207661e-02, -3.39627229e-02,
          -1.01075120e-01, 0., -5.35831526e-02, 0., -2.04164851e-02,
          -6.82283891e-03, -6.83207661e-02, 2.50504494e-01,
          -9.70013887e-02, -8.90347883e-02, 0., 1.07052252e-01, 0.,
          -1.02436028e-01, -3.38928178e-02, 2.50504494e-01,
          4.86061126e-02, 3.23118567e-02, 1.25451013e-01, 0.,
          -1.83211744e-03, 0., -6.60464820e-03, -2.20716838e-03,
          4.86061126e-02, 1.17741294e-01, -7.42815062e-02,
          -1.21509813e-01, 0., 2.36953974e-01, 0., -1.89811587e-01,
          1.76976711e-01, 1.17741294e-01, -2.27433592e-02,
          -3.15344073e-02, -3.17041911e-02, 0., -9.18258280e-02, 0.,
          -3.45342495e-02, -1.15407733e-02, -2.27433592e-02,
          4.59977053e-02, 2.95814313e-02, -2.99669094e-02, 0.,
          -4.11662906e-01, 0., 1.38528273e-01, 7.14575872e-02,
          4.59977053e-02, -1.98559999e-01, 3.50058228e-01,
          5.54289043e-01, 0., 5.74027598e-01, 0., -4.01110142e-01,
          -2.10550576e-02, -1.98559999e-01, -1.09228129e-02,
          -1.15440629e-01, 6.20498806e-02, 0., -1.89275846e-01, 0.,
          2.16422930e-01, -2.20432520e-01, -1.09228129e-02,
          -4.28502411e-01, -9.96905267e-02, -1.68928057e-01, 0.,
          5.60246520e-02, 0., -9.39697325e-02, 8.23693071e-03,
          -4.28502411e-01, -3.54908593e-02, 7.22010359e-02,
          1.96373105e-01, 0., -3.81172776e-01, 0., 3.02908402e-02,
          1.98149458e-01, -3.54908593e-02, -2.00149775e-01,
          6.20309673e-02, 2.46245220e-01, 0., 1.25188172e-01, 0.,
          -8.84745792e-02, 7.96795189e-02, -2.00149775e-01,
          -1.95392534e-01, -2.04730377e-01, 1.27763346e-01, 0.,
          2.27919042e-01, 0., 1.88477457e-01, 2.13879138e-01,
          -1.95392534e-01, -1.66464914e-02, -1.94692315e-04,
          1.17742248e-01, 0., 1.51849240e-01, 0., -3.53959233e-01,
          1.34731242e-02, -1.66464914e-02, -1.16048172e-01,
          -6.89670593e-02, -2.57752866e-01, 0., -9.03522223e-02, 0.,
          5.63105881e-01, 2.01446429e-01, -1.16048172e-01, 0., 0., 0.,
          0., 0., 0., 0., 0., 0., 0., 0., 0., 0., 0., 0., 0., 0., 0., 0.,
          0., 0., 0., 0., 0., 0., 0., 0., 0., 0., 0., 0., 0., 0., 0., 0.,
          0., 2.20637047e-03, 0., 0., 0., 6.64140424e-03, 0., 0., 0.,
          2.20637047e-03, -1.71685904e-01, -1.89516472e-03,
          -5.67104341e-03, 0., 6.72693402e-02, 0., 0., 0.,
          -1.71685904e-01, -2.05581286e-03, 0., 0., 0., -1.38848452e-02,
          0., 0., 0., -2.05581286e-03, -2.33155116e-02, -8.16014712e-04,
          -2.44181766e-03, 0., -3.41654308e-02, 0., 0., 0.,
          -2.33155116e-02, -1.76929399e-01, -1.80877908e-03,
          -5.41254319e-03, 0., 7.14484900e-02, 0., -5.98001666e-03,
          -1.99841848e-03, -1.76929399e-01, -9.11739934e-03,
          -3.32920589e-02, -9.53452066e-02, 0., 7.86107928e-02, 0.,
          -1.80473365e-02, -6.03111088e-03, -9.11739934e-03,
          -3.58231999e-02, -3.38651799e-03, -1.01337349e-02, 0.,
          -8.85914341e-02, 0., -2.98497779e-03, -9.97527619e-04,
          -3.58231999e-02, -9.92581099e-02, -2.36489791e-02,
          -7.07294643e-02, 0., -8.15805644e-02, 0., -2.04664171e-02,
          -6.83952495e-03, -9.92581099e-02, -1.44306738e-02,
          -2.03336067e-02, -6.08458072e-02, 0., -4.17099781e-02, 0.,
          -1.47874756e-02, -4.94171772e-03, -1.44306738e-02,
          -6.83220699e-02, -1.00810267e-01, -1.32364094e-01, 0.,
          -3.36627871e-01, 0., -1.81039777e-02, 2.96421368e-02,
          -6.83220699e-02, -1.15157649e-01, -2.12049969e-02,
          -6.10816590e-02, 0., 4.60424125e-02, 0., -1.82348303e-02,
          -1.17962034e-02, -1.15157649e-01, -6.70996234e-02,
          8.43856931e-02, 1.96358934e-01, 0., -3.42489153e-01, 0.,
          7.80452276e-03, -4.51546116e-03, -6.70996234e-02,
          6.66353106e-02, -2.00237799e-02, -3.97318378e-02, 0.,
          -1.48734152e-01, 0., 3.47657432e-03, -2.69234902e-03,
          6.66353106e-02, 1.08313531e-01, -5.97065017e-02,
          -7.01605082e-02, 0., -7.33075961e-02, 0., 3.85362893e-01,
          2.15096220e-01, 1.08313531e-01, -2.16282345e-02,
          -4.87269945e-02, -8.49636868e-02, 0., -5.58171496e-02, 0.,
          -1.01350537e-02, -3.38695548e-03, -2.16282345e-02,
          1.04475163e-01, -1.49915829e-01, -4.29611892e-01, 0.,
          1.97603688e-01, 0., -7.54952654e-02, -2.52293143e-02,
          1.04475163e-01, 6.57152057e-01, 1.15530819e-01, 1.73656255e-01,
          0., -9.61601660e-02, 0., -1.66054413e-01, -1.15974024e-02,
          6.57152057e-01, 5.18955663e-03, -9.18005332e-02,
          1.44625932e-01, 0., 7.57572725e-02, 0., 1.18904971e-01,
          2.87109381e-03, 5.18955663e-03, 6.18994310e-02, 6.31928444e-02,
          4.40083258e-02, 0., 3.22890766e-02, 0., -1.44607216e-01,
          -4.83253114e-02, 6.18994310e-02, -1.58477183e-02,
          2.00469792e-01, 3.79303694e-01, 0., 2.04994932e-01, 0.,
          2.40550011e-01, -1.76697522e-01, -1.58477183e-02,
          1.87125489e-01, 2.30092686e-02, -1.40089422e-01, 0.,
          -1.88145906e-01, 0., -3.25331271e-01, -1.05594054e-01,
          1.87125489e-01, -4.35510986e-02, -2.31289715e-01,
          1.26558229e-01, 0., 2.24888444e-01, 0., -4.83880863e-02,
          1.43970838e-02, -4.35510986e-02, -6.68584645e-01,
          -1.76432639e-01, -4.00426447e-01, 0., 1.27854422e-01, 0.,
          -7.24928454e-02, -1.06072739e-01, -6.68584645e-01,
          4.30394858e-02, -2.60950446e-01, 9.97931212e-02, 0.,
          1.91866711e-01, 0., 1.22022636e-01, 1.17886499e-01,
          4.30394858e-02, 0., 0., 0., 0., 0., 0., 0., 0., 0., 0., 0., 0.,
          0., 0., 0., 0., 0., 0., 0., 0., 0., 0., 0., 0., 0., 0., 0., 0.,
          0., 0., 0., 0., 0., 0., 0., 0., -1.01239991e-03, 0., 0., 0.,
          -1.33617613e-02, 0., 0., 0., -1.01239991e-03, -2.91249380e-02,
          0., 0., 0., -5.78210875e-02, 0., 0., 0., -2.91249380e-02,
          -3.19553859e-04, 0., 0., 0., -2.46107997e-03, 0., 0., 0.,
          -3.19553859e-04, -1.59548875e-02, 0., 0., 0., -7.23121017e-02,
          0., 0., 0., -1.59548875e-02, -4.03035171e-02, -4.73110145e-03,
          -1.41572319e-02, 0., -8.91700387e-02, 0., -6.46655262e-03,
          -2.16100900e-03, -4.03035171e-02, 5.65744527e-02,
          -3.09510846e-02, -5.90928830e-02, 0., -2.05712005e-01, 0.,
          -2.24695187e-02, -7.68315978e-03, 5.65744527e-02,
          -1.42946262e-02, -1.74915488e-03, -5.23412926e-03, 0.,
          -4.38790731e-02, 0., -8.82062782e-03, -2.94770021e-03,
          -1.42946262e-02, -1.39967442e-01, -6.28329348e-03,
          -1.88019667e-02, 0., 1.34205639e-01, 0., -1.76343340e-02,
          -1.11080147e-02, -1.39967442e-01, -5.40397763e-02,
          -2.59392001e-02, -4.78366464e-02, 0., 7.00114891e-02, 0.,
          -3.42833600e-03, -2.43575359e-03, -5.40397763e-02,
          -1.61312401e-01, 3.36801470e-03, 5.89463152e-02, 0.,
          -2.12582514e-01, 0., 1.83953360e-01, 7.61492997e-02,
          -1.61312401e-01, -3.76983956e-02, -5.35170361e-03,
          -1.60143096e-02, 0., -3.69219966e-02, 0., -7.56984763e-03,
          -4.21897694e-03, -3.76983956e-02, -2.33387485e-01,
          2.57102028e-03, 1.30195636e-02, 0., 1.85098320e-01, 0.,
          2.73130946e-02, 2.93075410e-03, -2.33387485e-01,
          1.92051809e-02, -2.12402493e-02, -2.07389742e-02, 0.,
          -9.04864147e-02, 0., 7.21956268e-02, 2.36150064e-02,
          1.92051809e-02, -1.83076002e-02, -1.78782456e-03,
          -1.43095493e-01, 0., -2.77985811e-01, 0., -5.99524891e-03,
          -7.36402534e-03, -1.83076002e-02, -9.96389240e-02,
          -2.94109937e-02, -7.40625383e-03, 0., -1.61353260e-01, 0.,
          1.60766430e-02, 1.10899004e-04, -9.96389240e-02,
          -1.28398255e-01, 1.93027202e-02, -2.74857525e-02, 0.,
          -5.77658042e-02, 0., -8.01576003e-02, -4.53520752e-02,
          -1.28398255e-01, 2.37545967e-01, 1.11910954e-01,
          1.21791080e-01, 0., -1.75640360e-01, 0., -1.52711526e-01,
          -5.06066792e-02, 2.37545967e-01, -3.84817272e-01,
          -8.88986140e-02, -1.52434677e-01, 0., -1.15488082e-01, 0.,
          -2.25285605e-01, -1.15225859e-01, -3.84817272e-01,
          -3.95561993e-01, -2.46361317e-03, -2.94213314e-02, 0.,
          1.32204490e-02, 0., -4.94247377e-02, 1.05365291e-02,
          -3.95561993e-01, 9.90850106e-02, 4.07522209e-02,
          8.89105070e-03, 0., 2.58048773e-01, 0., 7.89923314e-03,
          4.67116773e-01, 9.90850106e-02, 3.22510242e-01,
          -1.79900136e-02, -2.54401416e-02, 0., 2.57954985e-01, 0.,
          -1.12270601e-01, -2.49672774e-02, 3.22510242e-01,
          -4.04802039e-02, -1.47027239e-01, -1.73897102e-01, 0.,
          -3.05496722e-01, 0., 4.46164757e-01, 3.25488210e-01,
          -4.04802039e-02, -3.20063770e-01, 1.07390866e-01,
          2.36014768e-01, 0., -1.59405366e-01, 0., -1.46514386e-01,
          2.62499183e-01, -3.20063770e-01, -1.35326147e-01,
          1.66876793e-01, 1.51995674e-01, 0., -3.31523180e-01, 0.,
          -4.58178550e-01, 1.73807275e-02, -1.35326147e-01, 0., 0., 0.,
          0., 0., 0., 0., 0., 0., 0., 0., 0., 0., 0., 0., 0., 0., 0., 0.,
          0., 0., 0., 0., 0., 0., 0., 0., 0., 0., 0., 0., 0., 0., 0., 0.,
          0., 0., 0., 0., 0., 0., 0., 0., 0., 0., -5.06602675e-02, 0.,
          0., 0., -4.01821434e-02, 0., 0., 0., -5.06602675e-02, 0., 0.,
          0., 0., 0., 0., 0., 0., 0., 0., 0., 0., 0., 0., 0., 0., 0., 0.,
          -5.03316969e-02, -4.15464223e-04, -1.24322483e-03, 0.,
          -1.33173838e-02, 0., -8.68769642e-03, -2.90327682e-03,
          -5.03316969e-02, -1.37704015e-01, -1.53424393e-03,
          -4.59103193e-03, 0., 1.99602976e-01, 0., -1.57813206e-02,
          -1.25709390e-02, -1.37704015e-01, -1.36566795e-02, 0., 0., 0.,
          -2.16834024e-02, 0., -1.75673503e-03, -5.87070361e-04,
          -1.36566795e-02, -8.91746953e-02, 0., 0., 0., -9.23981816e-02,
          0., -2.72912066e-02, -9.12025105e-03, -8.91746953e-02,
          -5.01371874e-03, -3.09951557e-03, -9.27492045e-03, 0.,
          4.59360443e-02, 0., -1.34552130e-02, -5.97084081e-03,
          -5.01371874e-03, -3.77758481e-02, 3.21750678e-02,
          8.07556063e-02, 0., 3.55185300e-01, 0., -2.03111246e-02,
          -1.23059945e-02, -3.77758481e-02, -9.24830884e-02, 0., 0., 0.,
          -1.68066666e-01, 0., -5.88081256e-02, -1.96526591e-02,
          -9.24830884e-02, -3.54614556e-01, -8.08227584e-02,
          -1.25573441e-01, 0., 1.97435826e-01, 0., -2.47434661e-01,
          -1.10438727e-01, -3.54614556e-01, -3.55505981e-02,
          8.89795870e-02, 7.10250884e-02, 0., -3.77611183e-02, 0.,
          5.89109166e-03, -4.70473245e-03, -3.55505981e-02,
          -1.16492458e-01, 1.11325026e-01, 1.74285978e-01, 0.,
          4.71930206e-01, 0., -2.37175688e-01, -8.88855383e-02,
          -1.16492458e-01, -1.27593905e-01, -4.13522944e-02,
          -8.24163258e-02, 0., 1.45675257e-01, 0., -1.22296736e-01,
          -8.20457116e-02, -1.27593905e-01, 2.44029701e-01,
          -1.42142987e-02, 1.05837464e-01, 0., -3.59386563e-01, 0.,
          -3.06405108e-02, 7.12668076e-02, 2.44029701e-01,
          2.83410221e-01, 1.43866032e-01, 2.86550850e-01, 0.,
          5.55509090e-01, 0., -2.02723235e-01, -1.07488800e-02,
          2.83410221e-01, -1.76863536e-01, -1.92483097e-01,
          -2.39557520e-01, 0., -5.67156263e-02, 0., -1.74746484e-01,
          2.20699355e-01, -1.76863536e-01, -1.07596509e-01,
          -7.06471577e-02, -1.13930382e-01, 0., -3.41157228e-01, 0.,
          -1.19734053e-02, 4.34197225e-02, -1.07596509e-01,
          2.08445728e-01, 3.76293100e-02, 1.60743415e-01, 0.,
          5.40943258e-02, 0., -5.30912101e-01, -2.40846165e-02,
          2.08445728e-01, 1.05645902e-01, -6.52813837e-02,
          -1.42761081e-01, 0., -2.39912849e-02, 0., -3.34206343e-01,
          3.66070360e-01, 1.05645902e-01, 1.49726778e-01, 2.03169629e-01,
          -3.71348560e-01, 0., 1.61628351e-01, 0., -1.35881588e-01,
          -2.07723472e-02, 1.49726778e-01, -2.48545900e-01,
          -4.33467478e-02, 2.24294942e-02, 0., 1.56226009e-01, 0.,
          2.90837009e-02, 1.29324704e-01, -2.48545900e-01,
          1.71828657e-01, 5.59727699e-02, -1.83241874e-01, 0.,
          2.71156393e-02, 0., 3.35740715e-01, 1.75156668e-01,
          1.71828657e-01 ]
   decision_functions:
      -
         sv_count: 1
         rho: -3.1383255947302025e-01
         alpha: [ 1. ]
         index: [ 0 ]
